digraph Tree {
node [shape=box] ;
0 [label="Gender <= 0.5\ngini = 0.382\nsamples = 1941\nvalue = [1441, 500]"] ;
1 [label="Class <= 1.5\ngini = 0.48\nsamples = 456\nvalue = [182, 274]"] ;
0 -> 1 [labeldistance=2.5, labelangle=45, headlabel="True"] ;
3 [label="Class <= 0.5\ngini = 0.291\nsamples = 226\nvalue = [40, 186]"] ;
1 -> 3 ;
19 [label="Age <= 12.0\ngini = 0.206\nsamples = 137\nvalue = [16, 121]"] ;
3 -> 19 ;
21 [label="gini = 0.0\nsamples = 2\nvalue = [2, 0]"] ;
19 -> 21 ;
22 [label="Age <= 67.0\ngini = 0.186\nsamples = 135\nvalue = [14, 121]"] ;
19 -> 22 ;
23 [label="Age <= 43.5\ngini = 0.175\nsamples = 134\nvalue = [13, 121]"] ;
22 -> 23 ;
43 [label="gini = 0.092\nsamples = 83\nvalue = [4, 79]"] ;
23 -> 43 ;
44 [label="Age <= 47.5\ngini = 0.291\nsamples = 51\nvalue = [9, 42]"] ;
23 -> 44 ;
45 [label="gini = 0.459\nsamples = 14\nvalue = [5, 9]"] ;
44 -> 45 ;
46 [label="gini = 0.193\nsamples = 37\nvalue = [4, 33]"] ;
44 -> 46 ;
24 [label="gini = 0.0\nsamples = 1\nvalue = [1, 0]"] ;
22 -> 24 ;
20 [label="Age <= 13.0\ngini = 0.394\nsamples = 89\nvalue = [24, 65]"] ;
3 -> 20 ;
25 [label="gini = 0.0\nsamples = 9\nvalue = [0, 9]"] ;
20 -> 25 ;
26 [label="Age <= 18.5\ngini = 0.42\nsamples = 80\nvalue = [24, 56]"] ;
20 -> 26 ;
39 [label="gini = 0.49\nsamples = 7\nvalue = [4, 3]"] ;
26 -> 39 ;
40 [label="Age <= 50.5\ngini = 0.398\nsamples = 73\nvalue = [20, 53]"] ;
26 -> 40 ;
41 [label="gini = 0.363\nsamples = 63\nvalue = [15, 48]"] ;
40 -> 41 ;
42 [label="gini = 0.5\nsamples = 10\nvalue = [5, 5]"] ;
40 -> 42 ;
4 [label="Class <= 2.5\ngini = 0.472\nsamples = 230\nvalue = [142, 88]"] ;
1 -> 4 ;
9 [label="Age <= 38.5\ngini = 0.495\nsamples = 172\nvalue = [95, 77]"] ;
4 -> 9 ;
15 [label="Age <= 21.5\ngini = 0.499\nsamples = 153\nvalue = [79, 74]"] ;
9 -> 15 ;
33 [label="Age <= 19.5\ngini = 0.487\nsamples = 74\nvalue = [43, 31]"] ;
15 -> 33 ;
37 [label="Age <= 13.0\ngini = 0.499\nsamples = 59\nvalue = [31, 28]"] ;
33 -> 37 ;
47 [label="gini = 0.471\nsamples = 29\nvalue = [18, 11]"] ;
37 -> 47 ;
48 [label="gini = 0.491\nsamples = 30\nvalue = [13, 17]"] ;
37 -> 48 ;
38 [label="gini = 0.32\nsamples = 15\nvalue = [12, 3]"] ;
33 -> 38 ;
34 [label="Age <= 26.5\ngini = 0.496\nsamples = 79\nvalue = [36, 43]"] ;
15 -> 34 ;
35 [label="gini = 0.432\nsamples = 38\nvalue = [12, 26]"] ;
34 -> 35 ;
36 [label="gini = 0.485\nsamples = 41\nvalue = [24, 17]"] ;
34 -> 36 ;
16 [label="gini = 0.266\nsamples = 19\nvalue = [16, 3]"] ;
9 -> 16 ;
10 [label="Age <= 27.5\ngini = 0.307\nsamples = 58\nvalue = [47, 11]"] ;
4 -> 10 ;
11 [label="gini = 0.0\nsamples = 32\nvalue = [32, 0]"] ;
10 -> 11 ;
12 [label="Age <= 48.5\ngini = 0.488\nsamples = 26\nvalue = [15, 11]"] ;
10 -> 12 ;
29 [label="Age <= 43.5\ngini = 0.499\nsamples = 23\nvalue = [12, 11]"] ;
12 -> 29 ;
31 [label="gini = 0.48\nsamples = 20\nvalue = [12, 8]"] ;
29 -> 31 ;
32 [label="gini = 0.0\nsamples = 3\nvalue = [0, 3]"] ;
29 -> 32 ;
30 [label="gini = 0.0\nsamples = 3\nvalue = [3, 0]"] ;
12 -> 30 ;
2 [label="Age <= 9.5\ngini = 0.258\nsamples = 1485\nvalue = [1259, 226]"] ;
0 -> 2 [labeldistance=2.5, labelangle=-45, headlabel="False"] ;
5 [label="Class <= 1.5\ngini = 0.48\nsamples = 30\nvalue = [12, 18]"] ;
2 -> 5 ;
13 [label="gini = 0.0\nsamples = 9\nvalue = [0, 9]"] ;
5 -> 13 ;
14 [label="gini = 0.49\nsamples = 21\nvalue = [12, 9]"] ;
5 -> 14 ;
6 [label="Class <= 0.5\ngini = 0.245\nsamples = 1455\nvalue = [1247, 208]"] ;
2 -> 6 ;
7 [label="Age <= 49.5\ngini = 0.429\nsamples = 135\nvalue = [93, 42]"] ;
6 -> 7 ;
17 [label="gini = 0.467\nsamples = 105\nvalue = [66, 39]"] ;
7 -> 17 ;
18 [label="gini = 0.18\nsamples = 30\nvalue = [27, 3]"] ;
7 -> 18 ;
8 [label="Age <= 46.5\ngini = 0.22\nsamples = 1320\nvalue = [1154, 166]"] ;
6 -> 8 ;
27 [label="gini = 0.228\nsamples = 1232\nvalue = [1070, 162]"] ;
8 -> 27 ;
28 [label="gini = 0.087\nsamples = 88\nvalue = [84, 4]"] ;
8 -> 28 ;
}